<?xml version="1.0"?>
<opencv_storage>
<cascade>
  <stageType>BOOST</stageType>
  <featureType>LBP</featureType>
  <height>30</height>
  <width>30</width>
  <stageParams>
    <boostType>GAB</boostType>
    <minHitRate>9.9999898672103882e-01</minHitRate>
    <maxFalseAlarm>4.0000000596046448e-01</maxFalseAlarm>
    <weightTrimRate>9.4999999999999996e-01</weightTrimRate>
    <maxDepth>1</maxDepth>
    <maxWeakCount>100</maxWeakCount></stageParams>
  <featureParams>
    <maxCatCount>256</maxCatCount>
    <featSize>1</featSize></featureParams>
  <stageNum>20</stageNum>
  <stages>
    <!-- stage 0 -->
    <_>
      <maxWeakCount>6</maxWeakCount>
      <stageThreshold>-2.0809805393218994e+00</stageThreshold>
      <weakClassifiers>
        <_>
          <internalNodes>
            0 -1 65 -263130896 -11873 1346427351 -236981761 -628490241
            -544216838 -623117313 -1</internalNodes>
          <leafValues>
            -9.1510432958602905e-01 8.0289268493652344e-01</leafValues></_>
        <_>
          <internalNodes>
            0 -1 88 -21765 -282945 -21573 -205673797 -151877 -16385
            -554309 -24053</internalNodes>
          <leafValues>
            -7.0392090082168579e-01 7.5929749011993408e-01</leafValues></_>
        <_>
          <internalNodes>
            0 -1 184 -1002115900 -1001078307 -48381441 -839256651
            -600339302 -544612198 -607136801 -66881</internalNodes>
          <leafValues>
            -8.2043254375457764e-01 5.8553314208984375e-01</leafValues></_>
        <_>
          <internalNodes>
            0 -1 33 -682437888 -28443147 -111782409 -3148845 -1032560892
            -87039031 2072050687 -1122</internalNodes>
          <leafValues>
            -8.3238452672958374e-01 5.1525121927261353e-01</leafValues></_>
        <_>
          <internalNodes>
            0 -1 50 152380687 -14841477 -514516489 1930940699 445331774
            -2385875 -1740656706 -5145</internalNodes>
          <leafValues>
            -6.7832875251770020e-01 5.4342371225357056e-01</leafValues></_>
        <_>
          <internalNodes>
            0 -1 38 2234064 173297694 -801009163 -462147502 -1031024385
            -1450526566 -2100831817 -1076110401</internalNodes>
          <leafValues>
            -7.5852745771408081e-01 5.4059952497482300e-01</leafValues></_></weakClassifiers></_>
    <!-- stage 1 -->
    <_>
      <maxWeakCount>7</maxWeakCount>
      <stageThreshold>-2.1705100536346436e+00</stageThreshold>
      <weakClassifiers>
        <_>
          <internalNodes>
            0 -1 90 -21585 -2113601 -2121029 -21569 -1107316737 -5
            -67129409 -1</internalNodes>
          <leafValues>
            -7.1266537904739380e-01 7.8522467613220215e-01</leafValues></_>
        <_>
          <internalNodes>
            0 -1 18 -10424510 -221582490 -73412009 -8209 -218038459
            -677141569 -4718593 -1</internalNodes>
          <leafValues>
            -7.9838490486145020e-01 4.8958408832550049e-01</leafValues></_>
        <_>
          <internalNodes>
            0 -1 117 -234934176 811008085 -711721475 -2116769
            -1110491279 -248956319 -605081603 -32769</internalNodes>
          <leafValues>
            -6.6951078176498413e-01 5.2864634990692139e-01</leafValues></_>
        <_>
          <internalNodes>
            0 -1 164 602894271 601843663 -70003201 -4209313 1296792447
            1501252779 -1216349761 -1</internalNodes>
          <leafValues>
            -6.7434775829315186e-01 5.4594677686691284e-01</leafValues></_>
        <_>
          <internalNodes>
            0 -1 226 -285213725 -1033120849 152769352 -1562398052
            -677970361 -1060216641 -981286848 -403702797</internalNodes>
          <leafValues>
            -5.5374789237976074e-01 6.2166094779968262e-01</leafValues></_>
        <_>
          <internalNodes>
            0 -1 123 -1550076637 26955138 1432085815 -246431969
            -215231497 1539033107 1936180223 -4195361</internalNodes>
          <leafValues>
            -5.8742928504943848e-01 5.5318450927734375e-01</leafValues></_>
        <_>
          <internalNodes>
            0 -1 207 -36057 926646071 -67109313 847212159 2139045239
            1534001011 -34078725 -96485537</internalNodes>
          <leafValues>
            -5.4799014329910278e-01 6.1299759149551392e-01</leafValues></_></weakClassifiers></_>
    <!-- stage 2 -->
    <_>
      <maxWeakCount>8</maxWeakCount>
      <stageThreshold>-1.6108189821243286e+00</stageThreshold>
      <weakClassifiers>
        <_>
          <internalNodes>
            0 -1 89 -3149873 -536097 -39610932 -540016754 -275265297
            -35660869 -5256242 -1058162</internalNodes>
          <leafValues>
            -6.9256871938705444e-01 6.4528566598892212e-01</leafValues></_>
        <_>
          <internalNodes>
            0 -1 96 867954867 867685851 2070149111 -1207969317
            -681650257 -1078208085 -68166657 -1025</internalNodes>
          <leafValues>
            -6.3499653339385986e-01 5.9837228059768677e-01</leafValues></_>
        <_>
          <internalNodes>
            0 -1 10 -545259521 -3680513 -649789786 -85789150 -627582389
            -24569 -15474858 -403177641</internalNodes>
          <leafValues>
            -5.9040564298629761e-01 5.3170514106750488e-01</leafValues></_>
        <_>
          <internalNodes>
            0 -1 185 -856696828 1088277756 -168825475 -3156993
            -1684817229 -1196561497 -123732242 -268435457</internalNodes>
          <leafValues>
            -7.0495486259460449e-01 4.3178841471672058e-01</leafValues></_>
        <_>
          <internalNodes>
            0 -1 44 -2130987097 -1431568389 -147521 -1 218007551
            -939526401 654308791 -553787921</internalNodes>
          <leafValues>
            -4.6973732113838196e-01 6.1492681503295898e-01</leafValues></_>
        <_>
          <internalNodes>
            0 -1 77 -218894670 -247803427 -762140813 2076147357 -2889109
            -645034065 -293379074 -67108869</internalNodes>
          <leafValues>
            -5.8405107259750366e-01 4.8117187619209290e-01</leafValues></_>
        <_>
          <internalNodes>
            0 -1 101 -3211397 1703791142 -788294289 -1392000501
            -74976421 -1474490101 -39065805 219019011</internalNodes>
          <leafValues>
            -5.9816753864288330e-01 4.7667050361633301e-01</leafValues></_>
        <_>
          <internalNodes>
            0 -1 241 -1631651913 -1982431239 -201223701 1726650306
            1965520503 -357611373 -89264428 -17106956</internalNodes>
          <leafValues>
            -5.8939516544342041e-01 4.6209645271301270e-01</leafValues></_></weakClassifiers></_>
    <!-- stage 3 -->
    <_>
      <maxWeakCount>9</maxWeakCount>
      <stageThreshold>-2.3062260150909424e+00</stageThreshold>
      <weakClassifiers>
        <_>
          <internalNodes>
            0 -1 61 -16385 -160257 -806977 -21841 -540673 -16385 -938053
            -54337</internalNodes>
          <leafValues>
            -6.5116280317306519e-01 6.7159765958786011e-01</leafValues></_>
        <_>
          <internalNodes>
            0 -1 94 -254479628 -17125889 -235538945 -2127093 -134747141
            -71335765 -180909077 -4216149</internalNodes>
          <leafValues>
            -7.3577970266342163e-01 4.1482731699943542e-01</leafValues></_>
        <_>
          <internalNodes>
            0 -1 3 -1342200017 -1426086874 -976487625 -287898869
            1863543735 163710557 -73992326 -3169</internalNodes>
          <leafValues>
            -5.9633332490921021e-01 4.3918409943580627e-01</leafValues></_>
        <_>
          <internalNodes>
            0 -1 111 321983281 -1746157175 436525531 -33686055
            -1952714325 -1677878811 1573090811 -536872065</internalNodes>
          <leafValues>
            -5.5029910802841187e-01 4.7676086425781250e-01</leafValues></_>
        <_>
          <internalNodes>
            0 -1 187 -37224459 -963456573 -1056966646 -890510938
            -19940629 -120916329 -487404832 -228334685</internalNodes>
          <leafValues>
            -5.5677694082260132e-01 5.1986110210418701e-01</leafValues></_>
        <_>
          <internalNodes>
            0 -1 104 -42169554 -134618649 -209628705 -1111040886
            -203757105 -70518389 -80233524 -412425402</internalNodes>
          <leafValues>
            -5.8952355384826660e-01 4.5887210965156555e-01</leafValues></_>
        <_>
          <internalNodes>
            0 -1 68 -46145793 -136759089 1082317791 1081411143
            -1106841065 -842275973 -499052473 1078263815</internalNodes>
          <leafValues>
            -7.3243838548660278e-01 3.4311172366142273e-01</leafValues></_>
        <_>
          <internalNodes>
            0 -1 175 -1646782475 -2207276 353752575 -40584868 1771616509
            -1073975060 -1143440385 -1074265752</internalNodes>
          <leafValues>
            -5.1716274023056030e-01 5.0814312696456909e-01</leafValues></_>
        <_>
          <internalNodes>
            0 -1 235 -2158843 250742543 1229117787 175496575 1030573571
            1769935215 -475024633 2004873071</internalNodes>
          <leafValues>
            -6.2996655702590942e-01 4.3248274922370911e-01</leafValues></_></weakClassifiers></_>
    <!-- stage 4 -->
    <_>
      <maxWeakCount>10</maxWeakCount>
      <stageThreshold>-1.8011595010757446e+00</stageThreshold>
      <weakClassifiers>
        <_>
          <internalNodes>
            0 -1 86 -3334 -2110722 -788146438 -78394710 -7349270
            -351672822 -24643446 -69211398</internalNodes>
          <leafValues>
            -7.1921920776367188e-01 5.4719388484954834e-01</leafValues></_>
        <_>
          <internalNodes>
            0 -1 20 -257 -8788365 -17898754 -7311838 -142606369
            -25725074 -657409 -11274893</internalNodes>
          <leafValues>
            -5.1230502128601074e-01 5.8212959766387939e-01</leafValues></_>
        <_>
          <internalNodes>
            0 -1 181 461373439 -585632289 503574747 2080298399 732496527
            -106198509 137825038 458960895</internalNodes>
          <leafValues>
            -6.2367904186248779e-01 4.6704497933387756e-01</leafValues></_>
        <_>
          <internalNodes>
            0 -1 136 -339746397 199978815 -150997200 -262163 -671090883
            1585414143 -134219777 -9</internalNodes>
          <leafValues>
            -4.5016971230506897e-01 5.7718133926391602e-01</leafValues></_>
        <_>
          <internalNodes>
            0 -1 6 -462227646 -26024522 138432587 -708345065 -1185613292
            -256634457 -1029209110 -102034773</internalNodes>
          <leafValues>
            -7.3364192247390747e-01 3.9484557509422302e-01</leafValues></_>
        <_>
          <internalNodes>
            0 -1 14 -254309726 2049802647 1417885844 -1621272597
            -1160869109 -1361114962 -505234461 -2101249</internalNodes>
          <leafValues>
            -6.1055201292037964e-01 3.8696816563606262e-01</leafValues></_>
        <_>
          <internalNodes>
            0 -1 200 6422570 1651409051 9264061 -1330356029 1493189231
            1501907145 -611587077 -1093686357</internalNodes>
          <leafValues>
            -7.3440188169479370e-01 3.3112737536430359e-01</leafValues></_>
        <_>
          <internalNodes>
            0 -1 203 -229120533 -1026887254 1355008016 -913063935
            -300160022 -1978485749 -493272414 -216268805</internalNodes>
          <leafValues>
            -5.2790772914886475e-01 4.8769885301589966e-01</leafValues></_>
        <_>
          <internalNodes>
            0 -1 150 -823417310 16261835 -1029684319 -391255585
            -2121338285 -2012075965 -506988361 -525406</internalNodes>
          <leafValues>
            -5.5388057231903076e-01 4.2666512727737427e-01</leafValues></_>
        <_>
          <internalNodes>
            0 -1 27 -220730137 -208500713 718307554 -254881630
            -807713706 -568655198 1073991902 -168299705</internalNodes>
          <leafValues>
            -5.5076611042022705e-01 4.4910478591918945e-01</leafValues></_></weakClassifiers></_>
    <!-- stage 5 -->
    <_>
      <maxWeakCount>12</maxWeakCount>
      <stageThreshold>-1.4386260509490967e+00</stageThreshold>
      <weakClassifiers>
        <_>
          <internalNodes>
            0 -1 110 -4177 -536870913 -257 -134217729 -1073758209
            -88080385 -16385 -4195329</internalNodes>
          <leafValues>
            -5.2216023206710815e-01 6.5984117984771729e-01</leafValues></_>
        <_>
          <internalNodes>
            0 -1 169 -8265 -1 -16778608 -201326889 -150994949
            -1192230947 -354424184 -923795457</internalNodes>
          <leafValues>
            -4.4917458295822144e-01 6.0851210355758667e-01</leafValues></_>
        <_>
          <internalNodes>
            0 -1 75 -1143210049 -1692853999 497679729 968047889 -943649
            -3607871 -1177818737 1069366797</internalNodes>
          <leafValues>
            -7.2626930475234985e-01 3.7865433096885681e-01</leafValues></_>
        <_>
          <internalNodes>
            0 -1 24 -269489169 -365176365 -988717089 -18919248
            -1143211073 248359343 -208952833 -18088265</internalNodes>
          <leafValues>
            -4.8043614625930786e-01 5.0257933139801025e-01</leafValues></_>
        <_>
          <internalNodes>
            0 -1 7 -738460897 2080824059 -671031280 -536709614
            -133834448 -151802199 -1297943440 -252193157</internalNodes>
          <leafValues>
            -4.9393853545188904e-01 5.0255942344665527e-01</leafValues></_>
        <_>
          <internalNodes>
            0 -1 82 -707338381 -245436950 559667725 2142497567
            -654818395 -845494020 -261141482 1221541973</internalNodes>
          <leafValues>
            -6.1417794227600098e-01 3.5572978854179382e-01</leafValues></_>
        <_>
          <internalNodes>
            0 -1 180 1971019487 1606939299 -1649981539 1531965835
            1056670623 -626023989 844695067 2147482511</internalNodes>
          <leafValues>
            -5.7778358459472656e-01 4.1127827763557434e-01</leafValues></_>
        <_>
          <internalNodes>
            0 -1 142 -1529925881 -1741476851 -157573665 -606791211
            -101995722 -1117785451 1468660394 -288493589</internalNodes>
          <leafValues>
            -4.9698013067245483e-01 4.4805797934532166e-01</leafValues></_>
        <_>
          <internalNodes>
            0 -1 165 -322982865 -1932311813 -1072412009 -329332513
            1124742935 1661536537 -273548433 -134221890</internalNodes>
          <leafValues>
            -5.4960870742797852e-01 4.5422822237014771e-01</leafValues></_>
        <_>
          <internalNodes>
            0 -1 229 -806355777 -1113392000 -704776491 -575514448
            -327372805 -805373970 1163744724 -638061339</internalNodes>
          <leafValues>
            -4.1662016510963440e-01 5.8192670345306396e-01</leafValues></_>
        <_>
          <internalNodes>
            0 -1 98 1431360977 -1585130795 1229261277 -686911 588227503
            -6584085 2030229715 -36183157</internalNodes>
          <leafValues>
            -5.5835753679275513e-01 4.2816740274429321e-01</leafValues></_>
        <_>
          <internalNodes>
            0 -1 206 -1675115981 -1431502928 -1124140043 -552812831
            268287989 -1074921601 -2017499723 -21252611</internalNodes>
          <leafValues>
            -4.3705275654792786e-01 4.9754932522773743e-01</leafValues></_></weakClassifiers></_>
    <!-- stage 6 -->
    <_>
      <maxWeakCount>10</maxWeakCount>
      <stageThreshold>-1.9563136100769043e+00</stageThreshold>
      <weakClassifiers>
        <_>
          <internalNodes>
            0 -1 105 -33554481 -17 -201326641 -36714546 -201331713 -13
            -524338 -269489202</internalNodes>
          <leafValues>
            -5.3190124034881592e-01 5.4419994354248047e-01</leafValues></_>
        <_>
          <internalNodes>
            0 -1 161 -732626977 -598722675 -1827536629 -552103917
            -725550081 -71719943 -72237125 -1074795797</internalNodes>
          <leafValues>
            -5.0255608558654785e-01 5.3754740953445435e-01</leafValues></_>
        <_>
          <internalNodes>
            0 -1 127 1074005008 -33804673 2147102717 -572838229
            261377532 -1613287585 -254209 -315905</internalNodes>
          <leafValues>
            -4.5436152815818787e-01 5.7523703575134277e-01</leafValues></_>
        <_>
          <internalNodes>
            0 -1 9 -203425281 -151005985 -1256792638 -228401998
            -645149330 -195313541 -1450255467 -207619337</internalNodes>
          <leafValues>
            -5.1830214262008667e-01 4.7830650210380554e-01</leafValues></_>
        <_>
          <internalNodes>
            0 -1 137 -403708765 1083102147 -578227407 -573058573
            2022694995 27394178 -2122065643 -708857150</internalNodes>
          <leafValues>
            -4.9175387620925903e-01 4.3235337734222412e-01</leafValues></_>
        <_>
          <internalNodes>
            0 -1 208 -1075897769 -75538569 -16417 -76023937 -1648427139
            -42041489 -36503617 -80824321</internalNodes>
          <leafValues>
            -3.4687694907188416e-01 6.2519574165344238e-01</leafValues></_>
        <_>
          <internalNodes>
            0 -1 42 787556659 768608485 756060157 -916879020 -1132446372
            -71268224 2034809659 -7277880</internalNodes>
          <leafValues>
            -7.1651411056518555e-01 3.1207278370857239e-01</leafValues></_>
        <_>
          <internalNodes>
            0 -1 73 -421076334 -594896805 -938454789 -1160605480
            1082526808 -614858599 -87376387 -2917425</internalNodes>
          <leafValues>
            -4.8223724961280823e-01 4.4214373826980591e-01</leafValues></_>
        <_>
          <internalNodes>
            0 -1 227 -363505153 -891940389 -721169463 1922257943
            -7609359 -307036111 -1098124624 -226840352</internalNodes>
          <leafValues>
            -5.0628000497817993e-01 4.1738474369049072e-01</leafValues></_>
        <_>
          <internalNodes>
            0 -1 233 -210253025 2002470165 1426217427 842453443
            -248813499 1531650371 -1549030883 861139782</internalNodes>
          <leafValues>
            -5.3981703519821167e-01 4.1546702384948730e-01</leafValues></_></weakClassifiers></_>
    <!-- stage 7 -->
    <_>
      <maxWeakCount>12</maxWeakCount>
      <stageThreshold>-1.4024152755737305e+00</stageThreshold>
      <weakClassifiers>
        <_>
          <internalNodes>
            0 -1 119 -2129 -81 -129 -49 -1 -16385 -3155986 -1048818</internalNodes>
          <leafValues>
            -4.6956777572631836e-01 5.8232599496841431e-01</leafValues></_>
        <_>
          <internalNodes>
            0 -1 71 -538968065 -109063173 -1789659649 -117520130
            -150340737 -475062233 1472356724 -16845580</internalNodes>
          <leafValues>
            -5.1342368125915527e-01 4.5737791061401367e-01</leafValues></_>
        <_>
          <internalNodes>
            0 -1 238 -268437505 -1024802833 1828584696 -303104003
            -1040189449 1156579319 -973650864 -705169677</internalNodes>
          <leafValues>
            -4.4544363021850586e-01 4.9889406561851501e-01</leafValues></_>
        <_>
          <internalNodes>
            0 -1 140 5613045 135583661 -2058536225 1039654551 -115885081
            866368935 -544494337 686814459</internalNodes>
          <leafValues>
            -4.6165269613265991e-01 4.5935192704200745e-01</leafValues></_>
        <_>
          <internalNodes>
            0 -1 97 897560881 97483063 1331033157 -37039717 193711081
            -1886795379 1434464509 -275789585</internalNodes>
          <leafValues>
            -6.1506032943725586e-01 3.2681679725646973e-01</leafValues></_>
        <_>
          <internalNodes>
            0 -1 131 1351553204 1968124965 -199847683 -46146561
            -523425612 -41221404 -186358331 -4353</internalNodes>
          <leafValues>
            -5.0526612997055054e-01 3.9356008172035217e-01</leafValues></_>
        <_>
          <internalNodes>
            0 -1 147 1810590701 -35847735 -1056608401 -49954597
            2095861247 -102212935 -385795169 -91534693</internalNodes>
          <leafValues>
            -4.5711219310760498e-01 4.4494035840034485e-01</leafValues></_>
        <_>
          <internalNodes>
            0 -1 153 -2297355 -157538115 -783051605 -1445904131
            -181782941 -27107105 1005008251 1071329759</internalNodes>
          <leafValues>
            -4.8997458815574646e-01 4.1292601823806763e-01</leafValues></_>
        <_>
          <internalNodes>
            0 -1 26 -2102369 -453568161 -326186038 -220539116 -120327637
            2000409002 -1098859788 -139986505</internalNodes>
          <leafValues>
            -5.1943802833557129e-01 3.9924311637878418e-01</leafValues></_>
        <_>
          <internalNodes>
            0 -1 12 -806883409 -301606113 -654191361 -44697 142852991
            189972652 95015479 -843188417</internalNodes>
          <leafValues>
            -4.5571491122245789e-01 4.6930095553398132e-01</leafValues></_>
        <_>
          <internalNodes>
            0 -1 124 1165477803 176016853 -108963047 1968643289
            159414719 -100663158 -645629255 -205918271</internalNodes>
          <leafValues>
            -5.3279453516006470e-01 3.6778810620307922e-01</leafValues></_>
        <_>
          <internalNodes>
            0 -1 166 -270540252 -274734769 1614999781 1315688941
            -214703517 696395826 -141837505 -407520369</internalNodes>
          <leafValues>
            -4.8259019851684570e-01 4.1491624712944031e-01</leafValues></_></weakClassifiers></_>
    <!-- stage 8 -->
    <_>
      <maxWeakCount>13</maxWeakCount>
      <stageThreshold>-1.3028866052627563e+00</stageThreshold>
      <weakClassifiers>
        <_>
          <internalNodes>
            0 -1 182 -76357633 -67961374 2147483647 -819245 624997363
            -214893776 1192707839 -2656425</internalNodes>
          <leafValues>
            -4.8004910349845886e-01 5.3658539056777954e-01</leafValues></_>
        <_>
          <internalNodes>
            0 -1 173 1050709 534003325 1064648575 1040007159 -1359544355
            -215043 1072513023 -1077993473</internalNodes>
          <leafValues>
            -4.3993952870368958e-01 5.2341550588607788e-01</leafValues></_>
        <_>
          <internalNodes>
            0 -1 66 2071067472 -716130480 94339517 -176817307 1746987680
            -284100192 -1162925185 -974127185</internalNodes>
          <leafValues>
            -7.1268779039382935e-01 3.1549155712127686e-01</leafValues></_>
        <_>
          <internalNodes>
            0 -1 53 -421528873 -41962405 -2147003809 -891400034
            -225855145 -77397438 -1986860684 -151061264</internalNodes>
          <leafValues>
            -5.5338597297668457e-01 3.9924657344818115e-01</leafValues></_>
        <_>
          <internalNodes>
            0 -1 46 1426192855 -50290264 -1046656969 1426123008
            -566515533 -215514997 2066055551 1598372111</internalNodes>
          <leafValues>
            -5.5985218286514282e-01 3.2360652089118958e-01</leafValues></_>
        <_>
          <internalNodes>
            0 -1 197 -69215870 108294 -129117776 -880693184 1876811707
            -1987407102 -634787646 -1448087889</internalNodes>
          <leafValues>
            -5.7036852836608887e-01 3.1795838475227356e-01</leafValues></_>
        <_>
          <internalNodes>
            0 -1 247 -218116345 -1416180555 177245359 -1428949161
            1939499297 659227735 -368633974 -143134237</internalNodes>
          <leafValues>
            -4.6599456667900085e-01 4.1243135929107666e-01</leafValues></_>
        <_>
          <internalNodes>
            0 -1 122 500917423 1439764828 -587131597 1528421873
            1351645405 159387860 1887564763 1977211134</internalNodes>
          <leafValues>
            -5.3892022371292114e-01 3.5293176770210266e-01</leafValues></_>
        <_>
          <internalNodes>
            0 -1 62 -1163870760 -1114381 2147250163 -33984836
            -1237764107 -1101037569 1073709055 -1147202215</internalNodes>
          <leafValues>
            -3.8475674390792847e-01 5.1213896274566650e-01</leafValues></_>
        <_>
          <internalNodes>
            0 -1 107 -728739632 -669167279 -704527909 -1794426797
            -1462712680 -2003828351 -393688146 -1473709829</internalNodes>
          <leafValues>
            -4.3878465890884399e-01 4.2215192317962646e-01</leafValues></_>
        <_>
          <internalNodes>
            0 -1 31 -231999745 2105472711 -362285461 -260315934
            -687942044 -27034249 905879260 -218104069</internalNodes>
          <leafValues>
            -3.7964436411857605e-01 5.0914496183395386e-01</leafValues></_>
        <_>
          <internalNodes>
            0 -1 209 1680254626 1279439632 -737628033 -430111138
            1918904450 1855091360 -1449460528 -34078721</internalNodes>
          <leafValues>
            -5.8621203899383545e-01 3.2037526369094849e-01</leafValues></_>
        <_>
          <internalNodes>
            0 -1 129 463755889 -640678179 -778740963 966344669
            1845762961 -1153722238 1333886811 461052567</internalNodes>
          <leafValues>
            -5.2352231740951538e-01 3.5905832052230835e-01</leafValues></_></weakClassifiers></_>
    <!-- stage 9 -->
    <_>
      <maxWeakCount>15</maxWeakCount>
      <stageThreshold>-1.7160115242004395e+00</stageThreshold>
      <weakClassifiers>
        <_>
          <internalNodes>
            0 -1 200 1087374591 -2421225 2123453663 -15075173 -115645699
            -74759702 -73678913 -5575761</internalNodes>
          <leafValues>
            -5.5539411306381226e-01 4.3616673350334167e-01</leafValues></_>
        <_>
          <internalNodes>
            0 -1 118 -285478929 -4097 -5 -17322035 -7185 -1052689
            -1052725 -353442290</internalNodes>
          <leafValues>
            -4.4565293192863464e-01 4.6812498569488525e-01</leafValues></_>
        <_>
          <internalNodes>
            0 -1 100 -49547472 -676070416 -15 -2130444 2130034673
            -1078460427 -1493699083 -35834735</internalNodes>
          <leafValues>
            -4.3358051776885986e-01 4.5459800958633423e-01</leafValues></_>
        <_>
          <internalNodes>
            0 -1 4 -269490289 619613992 -51380421 -311566386 1191173435
            105318255 -134744074 -1</internalNodes>
          <leafValues>
            -4.1778367757797241e-01 4.7989508509635925e-01</leafValues></_>
        <_>
          <internalNodes>
            0 -1 190 -2097391 282459961 1912561936 1362222737 -87
            -103039001 -1107296312 -1178599461</internalNodes>
          <leafValues>
            -3.4303346276283264e-01 5.3586977720260620e-01</leafValues></_>
        <_>
          <internalNodes>
            0 -1 167 -7079469 -1725197485 -250389042 2023430982
            -804537963 -795857871 -1145050691 -2072929635</internalNodes>
          <leafValues>
            -4.6255832910537720e-01 3.7743034958839417e-01</leafValues></_>
        <_>
          <internalNodes>
            0 -1 211 -2136957199 -1036291 -285245441 -2099779
            -1213153283 -1076199433 -1086324737 -1879175851</internalNodes>
          <leafValues>
            -4.0928027033805847e-01 4.5325002074241638e-01</leafValues></_>
        <_>
          <internalNodes>
            0 -1 221 -146311073 1061125695 -16795779 309525099
            -268468361 -8523906 -25821505 -97321089</internalNodes>
          <leafValues>
            -3.8751247525215149e-01 4.7034052014350891e-01</leafValues></_>
        <_>
          <internalNodes>
            0 -1 154 -466870276 1567637502 -131 -537018919 -1083588868
            -1073758209 -1082329091 -1074198296</internalNodes>
          <leafValues>
            -4.1092994809150696e-01 4.7944229841232300e-01</leafValues></_>
        <_>
          <internalNodes>
            0 -1 8 -188768273 1960706448 -1630631466 542432202
            -1995471505 597625615 -998078240 -185084105</internalNodes>
          <leafValues>
            -6.4989775419235229e-01 2.9510846734046936e-01</leafValues></_>
        <_>
          <internalNodes>
            0 -1 92 -782636661 -46051071 1929445774 2107088905
            -400110686 1489346712 1778444525 1962621681</internalNodes>
          <leafValues>
            -6.0048961639404297e-01 2.9946234822273254e-01</leafValues></_>
        <_>
          <internalNodes>
            0 -1 220 -1636631623 -1476087080 -775741161 -1221475888
            -159173652 -919158093 2022175137 -273680907</internalNodes>
          <leafValues>
            -4.3296557664871216e-01 4.3391650915145874e-01</leafValues></_>
        <_>
          <internalNodes>
            0 -1 22 50851351 578551646 -351810673 34097729 -172007441
            -105168886 -546314233 -9437361</internalNodes>
          <leafValues>
            -4.6819549798965454e-01 3.9297908544540405e-01</leafValues></_>
        <_>
          <internalNodes>
            0 -1 56 -926166574 -90914082 152148797 -274766729 -649004364
            -685334336 -351564961 1337672567</internalNodes>
          <leafValues>
            -4.9025484919548035e-01 3.6018621921539307e-01</leafValues></_>
        <_>
          <internalNodes>
            0 -1 79 -181389116 -167894567 -721334177 -40103425
            -1337980739 -924069720 -74958420 46801243</internalNodes>
          <leafValues>
            -5.0263023376464844e-01 3.7011885643005371e-01</leafValues></_></weakClassifiers></_>
    <!-- stage 10 -->
    <_>
      <maxWeakCount>13</maxWeakCount>
      <stageThreshold>-1.9916791915893555e+00</stageThreshold>
      <weakClassifiers>
        <_>
          <internalNodes>
            0 -1 163 -209984657 -178923301 1493564895 -582893175
            1357452063 -1096247096 -909115905 -6424424</internalNodes>
          <leafValues>
            -5.4252201318740845e-01 4.1666665673255920e-01</leafValues></_>
        <_>
          <internalNodes>
            0 -1 130 804728703 -65667 -67 -1 -1073742337 -537001987
            -537460741 -2113793</internalNodes>
          <leafValues>
            -3.6187312006950378e-01 5.3967207670211792e-01</leafValues></_>
        <_>
          <internalNodes>
            0 -1 99 855899953 -149776908 -613035017 -69242419 -235423243
            -88368997 1938420215 -104877839</internalNodes>
          <leafValues>
            -4.2895522713661194e-01 4.3945813179016113e-01</leafValues></_>
        <_>
          <internalNodes>
            0 -1 81 -926375068 -606116965 -1786602625 -537493101
            339755031 1001390711 2075335023 2136410887</internalNodes>
          <leafValues>
            -5.5654019117355347e-01 3.4484681487083435e-01</leafValues></_>
        <_>
          <internalNodes>
            0 -1 224 -667362148 -258433 -1342177537 -1108484355
            -587293027 -1110147073 -461827 -1431393585</internalNodes>
          <leafValues>
            -3.6033266782760620e-01 5.1062178611755371e-01</leafValues></_>
        <_>
          <internalNodes>
            0 -1 1 -1380997201 -1370838586 -184300501 -395947177
            1073982743 68080067 39834407 1157088735</internalNodes>
          <leafValues>
            -5.8964741230010986e-01 3.0082920193672180e-01</leafValues></_>
        <_>
          <internalNodes>
            0 -1 139 -778315779 -181337211 -782675620 -312789131
            -1197814018 -856009283 -1124873504 -458820613</internalNodes>
          <leafValues>
            -4.7077268362045288e-01 3.8480651378631592e-01</leafValues></_>
        <_>
          <internalNodes>
            0 -1 201 -1032106913 -698673327 -966864489 1354265055
            -760435944 -93119976 -292317193 -231538817</internalNodes>
          <leafValues>
            -4.1687050461769104e-01 4.2449864745140076e-01</leafValues></_>
        <_>
          <internalNodes>
            0 -1 177 1054552 -1241754152 -519990825 1071386838
            -1349895431 -5597493 -1411026753 -1380442800</internalNodes>
          <leafValues>
            -5.6031084060668945e-01 3.2405921816825867e-01</leafValues></_>
        <_>
          <internalNodes>
            0 -1 43 -205598017 -719339314 -186068226 -708311898
            1513376710 -158170464 -352260666 -683191985</internalNodes>
          <leafValues>
            -4.5134535431861877e-01 4.1858667135238647e-01</leafValues></_>
        <_>
          <internalNodes>
            0 -1 237 -1097929950 114174039 -1194294860 -426064685
            -1161629375 293700793 -813040656 -50337589</internalNodes>
          <leafValues>
            -6.4958101511001587e-01 2.5327754020690918e-01</leafValues></_>
        <_>
          <internalNodes>
            0 -1 159 1161944463 -643100025 -1190952662 -904945021
            -670793508 -2007793533 329876 1141979401</internalNodes>
          <leafValues>
            -5.9109127521514893e-01 2.9788345098495483e-01</leafValues></_>
        <_>
          <internalNodes>
            0 -1 91 -599261699 345067725 -711779957 274758556
            -2004180600 -54850604 -95770338 -1475911686</internalNodes>
          <leafValues>
            -4.7990384697914124e-01 3.5050019621849060e-01</leafValues></_></weakClassifiers></_>
    <!-- stage 11 -->
    <_>
      <maxWeakCount>14</maxWeakCount>
      <stageThreshold>-1.5832422971725464e+00</stageThreshold>
      <weakClassifiers>
        <_>
          <internalNodes>
            0 -1 146 -402675921 -839401065 -1022646001 -354572401
            -41706641 -73403749 -289165553 -285482354</internalNodes>
          <leafValues>
            -5.2635276317596436e-01 4.3940418958663940e-01</leafValues></_>
        <_>
          <internalNodes>
            0 -1 80 431468975 869780125 -16192051 -140651348 -24091954
            -1091511160 -548886327 -8323392</internalNodes>
          <leafValues>
            -5.4724156856536865e-01 3.4100240468978882e-01</leafValues></_>
        <_>
          <internalNodes>
            0 -1 148 -276831486 114313939 -111613918 -520234533
            1326669827 1124319374 -724838558 -267527</internalNodes>
          <leafValues>
            -5.7787400484085083e-01 2.9316091537475586e-01</leafValues></_>
        <_>
          <internalNodes>
            0 -1 174 136603120 -557033004 -787340289 -1613915957
            -607325451 -1148768127 -1146421569 -1080553220</internalNodes>
          <leafValues>
            -5.0527518987655640e-01 3.7022042274475098e-01</leafValues></_>
        <_>
          <internalNodes>
            0 -1 214 -388243477 -863642226 -1516905320 -1999903928
            -82080888 -1944391270 -1665281920 -930350133</internalNodes>
          <leafValues>
            -5.4243749380111694e-01 3.1091570854187012e-01</leafValues></_>
        <_>
          <internalNodes>
            0 -1 145 -10988049 -70161857 -1851663655 -712004399
            -74426435 -1702175853 1770537135 533661679</internalNodes>
          <leafValues>
            -5.7099962234497070e-01 3.1249880790710449e-01</leafValues></_>
        <_>
          <internalNodes>
            0 -1 234 -135063801 439843139 -1868564489 1383297843
            -78815222 1561796864 -72649937 1935146811</internalNodes>
          <leafValues>
            -5.0807750225067139e-01 3.2818400859832764e-01</leafValues></_>
        <_>
          <internalNodes>
            0 -1 192 -1199522025 -679314091 -653667873 -35962135
            1980816631 -619575164 -1874633289 -840232524</internalNodes>
          <leafValues>
            -4.4764798879623413e-01 3.7381860613822937e-01</leafValues></_>
        <_>
          <internalNodes>
            0 -1 171 -199689220 202434564 2097339885 1570277791
            -110042625 -267067376 -91495814 555740799</internalNodes>
          <leafValues>
            -4.8084726929664612e-01 3.4651115536689758e-01</leafValues></_>
        <_>
          <internalNodes>
            0 -1 59 -397948294 -606633009 -1711106480 -1073485610
            1163086348 -566549813 -390793024 -542935425</internalNodes>
          <leafValues>
            -5.5540728569030762e-01 2.9513010382652283e-01</leafValues></_>
        <_>
          <internalNodes>
            0 -1 55 1732753775 -345550817 403784202 -2134711926
            -691836597 840474655 956457220 -160236284</internalNodes>
          <leafValues>
            -6.1662715673446655e-01 2.8098294138908386e-01</leafValues></_>
        <_>
          <internalNodes>
            0 -1 126 2653493 -626104134 889560575 1071226903 1745841652
            -1346875266 2077899771 468922898</internalNodes>
          <leafValues>
            -4.3702220916748047e-01 3.8496136665344238e-01</leafValues></_>
        <_>
          <internalNodes>
            0 -1 144 781459255 -354149417 -989212707 2128467437
            -1416463503 -81034822 -762779147 -723431038</internalNodes>
          <leafValues>
            -5.1115667819976807e-01 3.2030463218688965e-01</leafValues></_>
        <_>
          <internalNodes>
            0 -1 63 -189727184 -991576439 -1109079805 -725271775
            40347194 -611610354 1669890702 -13671513</internalNodes>
          <leafValues>
            -7.4786859750747681e-01 2.2039687633514404e-01</leafValues></_></weakClassifiers></_>
    <!-- stage 12 -->
    <_>
      <maxWeakCount>14</maxWeakCount>
      <stageThreshold>-1.9905135631561279e+00</stageThreshold>
      <weakClassifiers>
        <_>
          <internalNodes>
            0 -1 241 -2621449 -268708907 -116009249 -88607347 -7868425
            -1145362231 -139723788 -84348940</internalNodes>
          <leafValues>
            -5.3428786993026733e-01 3.8715830445289612e-01</leafValues></_>
        <_>
          <internalNodes>
            0 -1 133 -387986433 1569935861 -635369037 43513597 -20722785
            -1414558309 -209196469 -1432690962</internalNodes>
          <leafValues>
            -4.5563268661499023e-01 4.1533926129341125e-01</leafValues></_>
        <_>
          <internalNodes>
            0 -1 168 -1 -1757429829 -16777477 -1111621889 -135171
            -1377436458 -36188721 -1936860465</internalNodes>
          <leafValues>
            -3.3597415685653687e-01 5.1814055442810059e-01</leafValues></_>
        <_>
          <internalNodes>
            0 -1 52 -858269697 -553671425 -922551554 1391911474
            -476318905 -16355 -150235056 -17892620</internalNodes>
          <leafValues>
            -4.5516452193260193e-01 3.7489730119705200e-01</leafValues></_>
        <_>
          <internalNodes>
            0 -1 37 -112203793 -779699220 1929467081 662958575
            -940592819 -24980535 -343741617 1326445391</internalNodes>
          <leafValues>
            -4.2898231744766235e-01 4.1147744655609131e-01</leafValues></_>
        <_>
          <internalNodes>
            0 -1 232 -6292705 924795227 -2015503877 1115674454 -99887789
            2051101307 -391124023 -223089337</internalNodes>
          <leafValues>
            -4.1269135475158691e-01 4.0372562408447266e-01</leafValues></_>
        <_>
          <internalNodes>
            0 -1 112 -1048583261 31005147 -686427696 -136457005
            -527433573 1133543560 698389455 -204496358</internalNodes>
          <leafValues>
            -4.5980265736579895e-01 3.6339625716209412e-01</leafValues></_>
        <_>
          <internalNodes>
            0 -1 47 -252051471 -774903549 -201310763 1425902383
            -1180008191 -358950776 -71628786 -51905902</internalNodes>
          <leafValues>
            -4.4538044929504395e-01 3.6761847138404846e-01</leafValues></_>
        <_>
          <internalNodes>
            0 -1 17 -1403786275 1291757291 -2147454681 -1974990302
            566765530 1905126983 -234685941 -8365</internalNodes>
          <leafValues>
            -4.3374383449554443e-01 3.6396721005439758e-01</leafValues></_>
        <_>
          <internalNodes>
            0 -1 210 -1598636367 -68513633 1359804383 -2342620
            -1609659667 -1683423047 797531112 266076404</internalNodes>
          <leafValues>
            -5.3639072179794312e-01 3.2460418343544006e-01</leafValues></_>
        <_>
          <internalNodes>
            0 -1 152 -644025867 -1736163620 -2046819637 -1655229303
            -717883011 -1149650583 -548897921 794766171</internalNodes>
          <leafValues>
            -4.4814193248748779e-01 3.6019986867904663e-01</leafValues></_>
        <_>
          <internalNodes>
            0 -1 191 1071401341 2047164692 358929625 -49725223
            1186599726 -1316962232 463974999 -1073742933</internalNodes>
          <leafValues>
            -4.6281212568283081e-01 3.5546162724494934e-01</leafValues></_>
        <_>
          <internalNodes>
            0 -1 183 -223296513 -116833717 -654146102 -37158474
            1493184439 -1725954014 1495615303 -44604041</internalNodes>
          <leafValues>
            -4.6254384517669678e-01 3.6950019001960754e-01</leafValues></_>
        <_>
          <internalNodes>
            0 -1 21 -708378893 -137378861 -23718822 349415440 -644758010
            -486374730 -1563463486 -210774829</internalNodes>
          <leafValues>
            -4.1385072469711304e-01 3.8785681128501892e-01</leafValues></_></weakClassifiers></_>
    <!-- stage 13 -->
    <_>
      <maxWeakCount>16</maxWeakCount>
      <stageThreshold>-1.4773658514022827e+00</stageThreshold>
      <weakClassifiers>
        <_>
          <internalNodes>
            0 -1 60 -573195809 1434750301 1145082609 -666001193
            -796854339 -872361008 -867583719 -36259331</internalNodes>
          <leafValues>
            -5.0944823026657104e-01 3.6398223042488098e-01</leafValues></_>
        <_>
          <internalNodes>
            0 -1 141 -234881280 536980740 -16974051 -1121327307
            -405409803 -5128287 -34078785 -1413480529</internalNodes>
          <leafValues>
            -3.8513922691345215e-01 4.3140715360641479e-01</leafValues></_>
        <_>
          <internalNodes>
            0 -1 186 -218110449 -938256389 -497368086 -93273637
            -788012284 1886871558 -234360197 -217581105</internalNodes>
          <leafValues>
            -4.1223853826522827e-01 4.0743142366409302e-01</leafValues></_>
        <_>
          <internalNodes>
            0 -1 244 -402654219 -376448003 1973944575 -833449544
            -336873225 -1424587841 -582491968 -491857548</internalNodes>
          <leafValues>
            -4.5758047699928284e-01 3.3903244137763977e-01</leafValues></_>
        <_>
          <internalNodes>
            0 -1 196 -989333855 100727330 -268435535 -1918140431
            422560187 -1687748805 -1401686294 -1380974593</internalNodes>
          <leafValues>
            -3.8669312000274658e-01 4.2661854624748230e-01</leafValues></_>
        <_>
          <internalNodes>
            0 -1 74 -2092226765 -486418963 -1727861295 -2395954
            -1998417409 -273830487 299132919 -273679888</internalNodes>
          <leafValues>
            -4.2168986797332764e-01 3.8058060407638550e-01</leafValues></_>
        <_>
          <internalNodes>
            0 -1 223 -118219568 2142026862 -2228739 -572964897
            -1090732328 -1082277889 -1073830977 -1347764225</internalNodes>
          <leafValues>
            -2.9213252663612366e-01 5.2252370119094849e-01</leafValues></_>
        <_>
          <internalNodes>
            0 -1 2 1807724335 -301404886 1363865938 -537921778 145289110
            167881996 -1030754069 -671092997</internalNodes>
          <leafValues>
            -4.2307052016258240e-01 3.6707699298858643e-01</leafValues></_>
        <_>
          <internalNodes>
            0 -1 114 -429395424 -765264494 -31532575 -1248366524
            -905842447 -1980986486 163790929 -973770251</internalNodes>
          <leafValues>
            -4.7438603639602661e-01 3.3679175376892090e-01</leafValues></_>
        <_>
          <internalNodes>
            0 -1 155 739259440 -1647300390 1192849687 -1153498731
            -1709632875 -1145699685 -483106884 1073220464</internalNodes>
          <leafValues>
            -6.3485091924667358e-01 2.5352129340171814e-01</leafValues></_>
        <_>
          <internalNodes>
            0 -1 245 -193466869 1306521759 -1916758497 844614457
            1123156232 1443487842 -230107508 -209720609</internalNodes>
          <leafValues>
            -4.5500528812408447e-01 3.0687290430068970e-01</leafValues></_>
        <_>
          <internalNodes>
            0 -1 218 -823097668 -770058 -589827 -1249803 -1074212946
            -16928778 -74758 -1946350097</internalNodes>
          <leafValues>
            -3.2043027877807617e-01 4.7655346989631653e-01</leafValues></_>
        <_>
          <internalNodes>
            0 -1 76 -1501556720 -33543688 1359695195 -1626603020
            -1484577547 -1907389281 -1162089509 1001390165</internalNodes>
          <leafValues>
            -6.2298399209976196e-01 2.6369366049766541e-01</leafValues></_>
        <_>
          <internalNodes>
            0 -1 160 -486824149 -1047441009 -750201761 -489315957
            -1998752201 -653410037 2106500915 -738199593</internalNodes>
          <leafValues>
            -4.4526335597038269e-01 3.7343409657478333e-01</leafValues></_>
        <_>
          <internalNodes>
            0 -1 116 -1006606496 -1655037235 -1056865891 -644015865
            1209024884 -385341404 488668063 510347271</internalNodes>
          <leafValues>
            -4.8924762010574341e-01 3.3372941613197327e-01</leafValues></_>
        <_>
          <internalNodes>
            0 -1 19 1402991199 -276565 25466033 -1337805308 -660563694
            -881636976 -1576405743 -229121445</internalNodes>
          <leafValues>
            -4.4721221923828125e-01 3.9331555366516113e-01</leafValues></_></weakClassifiers></_>
    <!-- stage 14 -->
    <_>
      <maxWeakCount>17</maxWeakCount>
      <stageThreshold>-1.5434535741806030e+00</stageThreshold>
      <weakClassifiers>
        <_>
          <internalNodes>
            0 -1 93 -1891553345 -1646975529 -581947627 -36909699
            -1467958023 -726654780 -922699616 -296957244</internalNodes>
          <leafValues>
            -6.0485434532165527e-01 2.7967914938926697e-01</leafValues></_>
        <_>
          <internalNodes>
            0 -1 69 -85986305 -695414277 1361031423 -52799158 -157090889
            -806693733 -1634782460 -21303120</internalNodes>
          <leafValues>
            -5.0316804647445679e-01 3.1210482120513916e-01</leafValues></_>
        <_>
          <internalNodes>
            0 -1 216 -570463617 2069856095 -67275145 1919936255
            -33816717 -75542668 -4259845 -80588997</internalNodes>
          <leafValues>
            -3.8298368453979492e-01 4.0865480899810791e-01</leafValues></_>
        <_>
          <internalNodes>
            0 -1 204 -673197693 -1970687735 -1655481840 -2021403262
            -1872046422 -1373453312 -660409606 -1364787797</internalNodes>
          <leafValues>
            -3.8735195994377136e-01 4.2362973093986511e-01</leafValues></_>
        <_>
          <internalNodes>
            0 -1 166 -285217014 -1494258757 -423509468 -823661697
            1394045718 103891783 -6164393 -147326026</internalNodes>
          <leafValues>
            -5.5540245771408081e-01 2.6957646012306213e-01</leafValues></_>
        <_>
          <internalNodes>
            0 -1 83 -605850889 -572534562 420562577 1976236555
            -233683724 -1659240414 -881832384 1599294554</internalNodes>
          <leafValues>
            -5.4941689968109131e-01 2.5742849707603455e-01</leafValues></_>
        <_>
          <internalNodes>
            0 -1 242 -1184289 -828195166 -1363238160 -1205665870
            -1343506483 1257168782 -985016848 -575410702</internalNodes>
          <leafValues>
            -3.8320809602737427e-01 4.0092232823371887e-01</leafValues></_>
        <_>
          <internalNodes>
            0 -1 89 -787287089 -1727540003 -789085492 -237977214
            -519001875 -252378925 -1081947698 -142095740</internalNodes>
          <leafValues>
            -5.1205480098724365e-01 3.1810978055000305e-01</leafValues></_>
        <_>
          <internalNodes>
            0 -1 189 -52371076 285745989 -805074411 868708767 -662374231
            -494923391 982429167 -1347476993</internalNodes>
          <leafValues>
            -4.0115210413932800e-01 3.7230324745178223e-01</leafValues></_>
        <_>
          <internalNodes>
            0 -1 198 -1534659275 -1171520036 -1752572581 -1646886527
            -1885144147 -1566916472 -1949699147 -1883589224</internalNodes>
          <leafValues>
            -4.2619377374649048e-01 3.4202629327774048e-01</leafValues></_>
        <_>
          <internalNodes>
            0 -1 23 180830807 -84490545 2014514176 748486699 -83258657
            1568852312 2030713455 -989963667</internalNodes>
          <leafValues>
            -4.9779647588729858e-01 3.0968895554542542e-01</leafValues></_>
        <_>
          <internalNodes>
            0 -1 41 -22872080 -6246422 1878981623 -774594 520510902
            -1074348034 1874140671 -268470921</internalNodes>
          <leafValues>
            -3.5277938842773438e-01 4.2950901389122009e-01</leafValues></_>
        <_>
          <internalNodes>
            0 -1 219 1600028166 -496316264 -1056602860 -1836416590
            -885888578 -290781159 -272974928 -357369110</internalNodes>
          <leafValues>
            -4.7078746557235718e-01 3.2990109920501709e-01</leafValues></_>
        <_>
          <internalNodes>
            0 -1 248 -1227368927 1615712390 -853027826 580274435
            760623121 1829324874 -472796633 -243928457</internalNodes>
          <leafValues>
            -5.1851528882980347e-01 2.8517028689384460e-01</leafValues></_>
        <_>
          <internalNodes>
            0 -1 193 -2147428618 -1739407214 -1694301857 -854015516
            1081813 -1037365093 444996527 1229722483</internalNodes>
          <leafValues>
            -4.4162595272064209e-01 3.3489519357681274e-01</leafValues></_>
        <_>
          <internalNodes>
            0 -1 157 739537777 48927059 -1065234053 -1650011961
            -225901711 -1968996206 -93758467 -1417777954</internalNodes>
          <leafValues>
            -5.0278520584106445e-01 2.7636405825614929e-01</leafValues></_>
        <_>
          <internalNodes>
            0 -1 5 -414718363 179291564 1090642891 -68073462 1940812335
            1208701098 1956885120 -168305927</internalNodes>
          <leafValues>
            -4.4098964333534241e-01 3.5536137223243713e-01</leafValues></_></weakClassifiers></_>
    <!-- stage 15 -->
    <_>
      <maxWeakCount>16</maxWeakCount>
      <stageThreshold>-1.3888083696365356e+00</stageThreshold>
      <weakClassifiers>
        <_>
          <internalNodes>
            0 -1 108 -587400044 -799206323 -1610612803 494796719
            -1963153208 -553870849 -1459815681 -1427116033</internalNodes>
          <leafValues>
            -4.0762990713119507e-01 4.6823149919509888e-01</leafValues></_>
        <_>
          <internalNodes>
            0 -1 70 -1 -458913 -1 -75632649 -841134337 -1137414202
            -134789377 -16486571</internalNodes>
          <leafValues>
            -3.6166357994079590e-01 4.7255790233612061e-01</leafValues></_>
        <_>
          <internalNodes>
            0 -1 135 -587270658 -63305122 1360990913 -470351655
            -1863257644 -119242088 -1283423317 -2624593</internalNodes>
          <leafValues>
            -4.7986152768135071e-01 3.2285067439079285e-01</leafValues></_>
        <_>
          <internalNodes>
            0 -1 85 -151064850 -554262417 -670380917 -232779764
            -358465172 -886888191 -1920415794 -160237489</internalNodes>
          <leafValues>
            -4.4289860129356384e-01 3.3434447646141052e-01</leafValues></_>
        <_>
          <internalNodes>
            0 -1 240 -2081953803 -1070669601 1628246455 -528836407
            -631002189 -372637016 -1550851692 -121703552</internalNodes>
          <leafValues>
            -4.4991657137870789e-01 3.4871989488601685e-01</leafValues></_>
        <_>
          <internalNodes>
            0 -1 106 -663526059 1480330591 -67174401 434712573
            -1090585108 -1358970924 -1677934627 -1078315281</internalNodes>
          <leafValues>
            -3.5626021027565002e-01 4.3255072832107544e-01</leafValues></_>
        <_>
          <internalNodes>
            0 -1 202 -445561626 -1072123893 -998319608 -2104438111
            -570180102 1209179285 -1030762080 -764674309</internalNodes>
          <leafValues>
            -4.7496995329856873e-01 3.2247239351272583e-01</leafValues></_>
        <_>
          <internalNodes>
            0 -1 134 -505417974 43626583 -1073626687 541975371
            -182308575 -1046347759 -1568095290 -421269990</internalNodes>
          <leafValues>
            -5.6783765554428101e-01 2.5171676278114319e-01</leafValues></_>
        <_>
          <internalNodes>
            0 -1 143 148508788 -1631320289 -1946101361 -569959097
            -1081245211 -1363146744 -1525801108 -1358199345</internalNodes>
          <leafValues>
            -5.7552784681320190e-01 2.4359232187271118e-01</leafValues></_>
        <_>
          <internalNodes>
            0 -1 225 -85807660 351120574 -553701571 -1646694401
            -269238314 -1392508930 -1359946577 -1431690085</internalNodes>
          <leafValues>
            -3.5275617241859436e-01 4.1025042533874512e-01</leafValues></_>
        <_>
          <internalNodes>
            0 -1 170 817895792 848363919 353962487 -1076379239 796966053
            971872553 -1430591320 157280383</internalNodes>
          <leafValues>
            -4.1768503189086914e-01 3.6333706974983215e-01</leafValues></_>
        <_>
          <internalNodes>
            0 -1 16 1703915435 202286030 -467545150 2032597771
            1279746847 248482 1343451191 -455086082</internalNodes>
          <leafValues>
            -4.5634871721267700e-01 3.2554987072944641e-01</leafValues></_>
        <_>
          <internalNodes>
            0 -1 115 -24445960 -1751736164 -1316874114 -578747880
            -398425868 671219721 1268935272 -841787062</internalNodes>
          <leafValues>
            -4.2406588792800903e-01 3.5222765803337097e-01</leafValues></_>
        <_>
          <internalNodes>
            0 -1 30 -537133249 -1376785435 -298909841 -167055589
            -824381880 2138394493 -321724900 -11347638</internalNodes>
          <leafValues>
            -3.5210764408111572e-01 4.1073477268218994e-01</leafValues></_>
        <_>
          <internalNodes>
            0 -1 236 -858206787 -595837347 -1140868353 931098583
            -1090527235 -50462857 -1178665297 -1439253538</internalNodes>
          <leafValues>
            -3.1813883781433105e-01 4.6984472870826721e-01</leafValues></_>
        <_>
          <internalNodes>
            0 -1 57 -859776814 1177928335 1076415038 -2078323004
            -1063138304 -1018531446 -34924455 1609523039</internalNodes>
          <leafValues>
            -4.5565012097358704e-01 3.2917761802673340e-01</leafValues></_></weakClassifiers></_>
    <!-- stage 16 -->
    <_>
      <maxWeakCount>17</maxWeakCount>
      <stageThreshold>-1.8196504116058350e+00</stageThreshold>
      <weakClassifiers>
        <_>
          <internalNodes>
            0 -1 109 -746064897 -321849680 -2109095487 1911880176
            -926211957 -515276663 277844527 -38428481</internalNodes>
          <leafValues>
            -4.7248715162277222e-01 3.5393622517585754e-01</leafValues></_>
        <_>
          <internalNodes>
            0 -1 213 150752479 -86075745 -583656105 -155035185
            -1467315557 -108918784 -652891925 -1148014374</internalNodes>
          <leafValues>
            -4.5481893420219421e-01 3.6598953604698181e-01</leafValues></_>
        <_>
          <internalNodes>
            0 -1 103 -654325249 -16781441 -222564425 -225251333
            -33714228 -1090551954 -65794 -9765285</internalNodes>
          <leafValues>
            -2.8305959701538086e-01 5.2729600667953491e-01</leafValues></_>
        <_>
          <internalNodes>
            0 -1 78 -559937424 -2162571 -1056733987 -1616964711
            -1459592564 -1715273591 -1194673985 1059600157</internalNodes>
          <leafValues>
            -4.7410315275192261e-01 3.1622380018234253e-01</leafValues></_>
        <_>
          <internalNodes>
            0 -1 138 -810569938 -1366495250 -1627705596 -269615513
            -1369444883 -2058816530 1073184517 -976267297</internalNodes>
          <leafValues>
            -3.7653273344039917e-01 3.9950969815254211e-01</leafValues></_>
        <_>
          <internalNodes>
            0 -1 113 -1254895327 -119341084 637392161 -169659088
            -1380057633 -1611202689 905426101 -578955803</internalNodes>
          <leafValues>
            -3.7440416216850281e-01 3.8983684778213501e-01</leafValues></_>
        <_>
          <internalNodes>
            0 -1 212 -1205807728 -135221348 -19 -80808620 -1498372681
            -9125889 -1342841601 1057973309</internalNodes>
          <leafValues>
            -3.7917646765708923e-01 3.8502258062362671e-01</leafValues></_>
        <_>
          <internalNodes>
            0 -1 230 -208821969 67948934 -1056335468 -800202544
            -895528817 -1954520957 -880191915 -724581935</internalNodes>
          <leafValues>
            -4.2447364330291748e-01 3.5536095499992371e-01</leafValues></_>
        <_>
          <internalNodes>
            0 -1 0 -842017617 -291444326 -1674260449 1069712284 8931582
            1216938666 1905205526 1365762694</internalNodes>
          <leafValues>
            -5.0657761096954346e-01 2.9587420821189880e-01</leafValues></_>
        <_>
          <internalNodes>
            0 -1 128 -986690432 -1618853702 -2147467087 -213237299
            -246908423 -112951157 -113186408 -1951465268</internalNodes>
          <leafValues>
            -4.2326414585113525e-01 3.6187225580215454e-01</leafValues></_>
        <_>
          <internalNodes>
            0 -1 95 -1685004847 1347785089 1372657457 -1089482223
            -657925390 -2103848712 1871268105 195821756</internalNodes>
          <leafValues>
            -3.8561877608299255e-01 3.8609352707862854e-01</leafValues></_>
        <_>
          <internalNodes>
            0 -1 58 1922234946 -507327289 -1273982944 -732592616
            1479607362 413270035 2013847364 -8434681</internalNodes>
          <leafValues>
            -5.1388800144195557e-01 3.0522421002388000e-01</leafValues></_>
        <_>
          <internalNodes>
            0 -1 121 -643570297 -795819964 1400948207 -43460888
            -400394871 411146240 -523867939 1389621437</internalNodes>
          <leafValues>
            -5.0585389137268066e-01 3.0498373508453369e-01</leafValues></_>
        <_>
          <internalNodes>
            0 -1 132 588909091 -1999044491 -568599297 -325599156
            1269319761 -1400209267 -1953173369 -1400182135</internalNodes>
          <leafValues>
            -5.4194289445877075e-01 2.8312733769416809e-01</leafValues></_>
        <_>
          <internalNodes>
            0 -1 49 -1226836505 1474026991 -1225204239 -1069426622
            -137568909 -671092753 -431964218 -842309669</internalNodes>
          <leafValues>
            -3.7087342143058777e-01 4.1917800903320313e-01</leafValues></_>
        <_>
          <internalNodes>
            0 -1 84 -1248161534 1915116239 83888131 -283833327 142647764
            -190553950 -1375616661 193266430</internalNodes>
          <leafValues>
            -4.6451684832572937e-01 3.5698047280311584e-01</leafValues></_>
        <_>
          <internalNodes>
            0 -1 29 2128542306 -238468990 -699633264 -548372200
            -1285336252 -515293184 -254418884 -97156992</internalNodes>
          <leafValues>
            -4.9824389815330505e-01 2.8672015666961670e-01</leafValues></_></weakClassifiers></_>
    <!-- stage 17 -->
    <_>
      <maxWeakCount>18</maxWeakCount>
      <stageThreshold>-1.8889821767807007e+00</stageThreshold>
      <weakClassifiers>
        <_>
          <internalNodes>
            0 -1 91 -570434051 1422521613 -272658689 352960447
            -654576404 -193069323 -787714 -1168121857</internalNodes>
          <leafValues>
            -3.7124526500701904e-01 4.5255166292190552e-01</leafValues></_>
        <_>
          <internalNodes>
            0 -1 54 -1064446753 -145382383 1073799390 -132492086
            1074037431 -1450702678 537018576 -255070042</internalNodes>
          <leafValues>
            -4.8997893929481506e-01 3.2783964276313782e-01</leafValues></_>
        <_>
          <internalNodes>
            0 -1 195 1079001335 1930511303 671566099 2072051713
            -416128567 -341210554 -368514408 -106353976</internalNodes>
          <leafValues>
            -5.3160542249679565e-01 2.8292977809906006e-01</leafValues></_>
        <_>
          <internalNodes>
            0 -1 222 -956437750 1928527671 -356585625 -479269057
            1931883050 792023871 -1413771863 -209716306</internalNodes>
          <leafValues>
            -3.8435503840446472e-01 4.0205654501914978e-01</leafValues></_>
        <_>
          <internalNodes>
            0 -1 194 -535769648 -209551052 -1987358597 -553575984 11252
            -58687360 -954201637 534214487</internalNodes>
          <leafValues>
            -4.6711429953575134e-01 3.0911508202552795e-01</leafValues></_>
        <_>
          <internalNodes>
            0 -1 176 -138859 -1846034593 -33570991 901242717 -570430323
            -1666908233 -558109304 -1430259841</internalNodes>
          <leafValues>
            -2.9193496704101563e-01 5.5562174320220947e-01</leafValues></_>
        <_>
          <internalNodes>
            0 -1 39 1359958239 1629712046 -16810121 1141264129
            -1930067969 1049362398 -134258697 1608479899</internalNodes>
          <leafValues>
            -3.4098953008651733e-01 4.2875045537948608e-01</leafValues></_>
        <_>
          <internalNodes>
            0 -1 231 -85997729 2001035593 1342264496 1108404402
            -75132659 2030045441 -1920222216 -263009373</internalNodes>
          <leafValues>
            -4.2492857575416565e-01 3.3714511990547180e-01</leafValues></_>
        <_>
          <internalNodes>
            0 -1 35 -1072621313 -644087680 17318094 -16375574 277584283
            -1161689037 -1996486641 -954121689</internalNodes>
          <leafValues>
            -4.3186444044113159e-01 3.4729713201522827e-01</leafValues></_>
        <_>
          <internalNodes>
            0 -1 205 -1623725262 -310264925 1140539889 -39585632
            -1948262514 255655608 -1094854920 -1682178629</internalNodes>
          <leafValues>
            -3.4168151021003723e-01 4.3391269445419312e-01</leafValues></_>
        <_>
          <internalNodes>
            0 -1 149 -418645233 487605097 -595241795 -1073479161
            1347638135 403177537 -500454439 -795965302</internalNodes>
          <leafValues>
            -4.6423649787902832e-01 3.1025221943855286e-01</leafValues></_>
        <_>
          <internalNodes>
            0 -1 28 -1564233981 -868356087 1494729138 -44983137
            134844667 1304441352 -2122178097 -555072365</internalNodes>
          <leafValues>
            -4.4066143035888672e-01 3.4393632411956787e-01</leafValues></_>
        <_>
          <internalNodes>
            0 -1 217 -1195445328 -89367043 -16928835 -2097165
            -1898084417 -9 -1101185098 -1482746501</internalNodes>
          <leafValues>
            -3.2308104634284973e-01 4.6874454617500305e-01</leafValues></_>
        <_>
          <internalNodes>
            0 -1 36 -574763105 -470039928 1074267295 -892675818
            -896865726 708949169 -1003807952 -1030835309</internalNodes>
          <leafValues>
            -4.3079319596290588e-01 3.4602043032646179e-01</leafValues></_>
        <_>
          <internalNodes>
            0 -1 64 -20407728 1401946505 1354780918 -644526064
            -1736036220 -1744793432 -2046806273 -639352815</internalNodes>
          <leafValues>
            -4.0905857086181641e-01 4.0658810734748840e-01</leafValues></_>
        <_>
          <internalNodes>
            0 -1 125 -240602187 -599135460 16880411 -2038644715
            1779814564 -1559519223 -1098523045 1219172735</internalNodes>
          <leafValues>
            -4.2654019594192505e-01 3.5760915279388428e-01</leafValues></_>
        <_>
          <internalNodes>
            0 -1 239 -470817817 1217102722 21434608 -2131361389
            -1330830661 2023981961 -1685886460 -997530996</internalNodes>
          <leafValues>
            -4.2854630947113037e-01 3.4660702943801880e-01</leafValues></_>
        <_>
          <internalNodes>
            0 -1 179 -678961744 201883680 806590644 -41631039 4953659
            -234847008 1611182263 181385647</internalNodes>
          <leafValues>
            -4.8197063803672791e-01 3.0739876627922058e-01</leafValues></_></weakClassifiers></_>
    <!-- stage 18 -->
    <_>
      <maxWeakCount>18</maxWeakCount>
      <stageThreshold>-1.3676332235336304e+00</stageThreshold>
      <weakClassifiers>
        <_>
          <internalNodes>
            0 -1 172 -49908 -1760231936 -82183 892321577 -1364737799
            -21381211 1073741739 -1349780021</internalNodes>
          <leafValues>
            -3.5085892677307129e-01 5.8631259202957153e-01</leafValues></_>
        <_>
          <internalNodes>
            0 -1 162 -657334226 -721174272 -2147459070 -669302635
            1632113175 16777344 -1727991677 -120991616</internalNodes>
          <leafValues>
            -4.6616420149803162e-01 4.1023746132850647e-01</leafValues></_>
        <_>
          <internalNodes>
            0 -1 25 -796897066 -1336934318 1107461363 -2071982072
            545299396 -1174372224 32911 850399276</internalNodes>
          <leafValues>
            -4.7552326321601868e-01 4.0070801973342896e-01</leafValues></_>
        <_>
          <internalNodes>
            0 -1 243 -889724497 859815801 -1342203149 880439294
            1696009484 757989149 -830567544 -171974830</internalNodes>
          <leafValues>
            -3.4860089421272278e-01 5.1310807466506958e-01</leafValues></_>
        <_>
          <internalNodes>
            0 -1 114 -643570653 -245106782 2130507621 -35299337
            -17377857 -956497921 1290138838 -716180107</internalNodes>
          <leafValues>
            -3.3399683237075806e-01 5.3033107519149780e-01</leafValues></_>
        <_>
          <internalNodes>
            0 -1 48 -189632400 1962518433 -4425764 -1254705245
            -312431136 -1753600233 -1091273251 738933087</internalNodes>
          <leafValues>
            -3.8879251480102539e-01 4.8771595954895020e-01</leafValues></_>
        <_>
          <internalNodes>
            0 -1 51 1309819231 -402522103 -259506118 -627834750
            -2138536844 -1433927296 -1182752711 -161349488</internalNodes>
          <leafValues>
            -5.1575404405593872e-01 3.4704822301864624e-01</leafValues></_>
        <_>
          <internalNodes>
            0 -1 102 50352146 25231491 150995205 2110222351 369167570
            1485373578 -1979577489 1522862615</internalNodes>
          <leafValues>
            -5.7673692703247070e-01 3.5398018360137939e-01</leafValues></_>
        <_>
          <internalNodes>
            0 -1 67 1885583718 -720566264 8423940 1154554069 -888961021
            134881793 -1115678682 1563394093</internalNodes>
          <leafValues>
            -5.8240509033203125e-01 2.9025721549987793e-01</leafValues></_>
        <_>
          <internalNodes>
            0 -1 151 72895601 -705801 788477815 -163969 1048002556
            -1107460099 -8581187 -1141243794</internalNodes>
          <leafValues>
            -3.8085421919822693e-01 4.9880364537239075e-01</leafValues></_>
        <_>
          <internalNodes>
            0 -1 228 -782019765 1124130947 -2130635883 539365474
            -1056964600 -2002190336 -2080335759 -1058389376</internalNodes>
          <leafValues>
            -5.9636288881301880e-01 3.2964700460433960e-01</leafValues></_>
        <_>
          <internalNodes>
            0 -1 87 1430290609 1091567957 -1073639344 1360101396
            16904593 49409 1694552346 156336285</internalNodes>
          <leafValues>
            -6.0810798406600952e-01 3.1308242678642273e-01</leafValues></_>
        <_>
          <internalNodes>
            0 -1 32 -1608072766 1385070604 1090671900 -409173952
            436371493 805863436 1073741889 1569914935</internalNodes>
          <leafValues>
            -6.9631457328796387e-01 2.5825074315071106e-01</leafValues></_>
        <_>
          <internalNodes>
            0 -1 158 843022935 1920972663 -1828962821 -75760130
            -1342721931 -587237513 -2098127659 -235423785</internalNodes>
          <leafValues>
            -4.3228295445442200e-01 4.7776070237159729e-01</leafValues></_>
        <_>
          <internalNodes>
            0 -1 156 -444601215 -200087040 -17041816 -912031813
            -1098940765 -1472602578 937915754 -969155093</internalNodes>
          <leafValues>
            -3.6372715234756470e-01 5.5846774578094482e-01</leafValues></_>
        <_>
          <internalNodes>
            0 -1 34 -832517027 2056225996 -1109520811 -1611805010
            -1089004100 -144859372 994018339 -111340482</internalNodes>
          <leafValues>
            -3.4360197186470032e-01 5.7271808385848999e-01</leafValues></_>
        <_>
          <internalNodes>
            0 -1 11 -1311521769 -1504374653 336692700 -468940796
            1086931474 1476919300 -1230708479 1904247043</internalNodes>
          <leafValues>
            -5.0746065378189087e-01 4.0432801842689514e-01</leafValues></_>
        <_>
          <internalNodes>
            0 -1 178 280611225 83918986 -1862122304 -816850795
            -804732871 726663204 402761418 161193147</internalNodes>
          <leafValues>
            -5.1744103431701660e-01 3.6819729208946228e-01</leafValues></_></weakClassifiers></_>
    <!-- stage 19 -->
    <_>
      <maxWeakCount>11</maxWeakCount>
      <stageThreshold>-1.9438968896865845e+00</stageThreshold>
      <weakClassifiers>
        <_>
          <internalNodes>
            0 -1 215 -642965447 -47141685 989563573 1368416312 170552992
            167960352 -2132713334 -105262910</internalNodes>
          <leafValues>
            -3.6617404222488403e-01 8.8549119234085083e-01</leafValues></_>
        <_>
          <internalNodes>
            0 -1 15 -1457008963 -1878906330 1073426097 1676028450
            237357705 -1534886366 1199551582 -1040337191</internalNodes>
          <leafValues>
            -3.5937261581420898e-01 7.5439870357513428e-01</leafValues></_>
        <_>
          <internalNodes>
            0 -1 188 356565380 67190792 285212681 -1795096575 557290
            461979712 8390818 168808843</internalNodes>
          <leafValues>
            -5.1940608024597168e-01 5.6154745817184448e-01</leafValues></_>
        <_>
          <internalNodes>
            0 -1 162 -801069014 1090535680 285237256 -805158911
            1077940739 0 16814224 1212268544</internalNodes>
          <leafValues>
            -5.9620249271392822e-01 4.8944979906082153e-01</leafValues></_>
        <_>
          <internalNodes>
            0 -1 120 -2144286102 705692418 134349376 554303489 545278602
            -1476329464 538976257 -1420220406</internalNodes>
          <leafValues>
            -6.3130378723144531e-01 4.8510482907295227e-01</leafValues></_>
        <_>
          <internalNodes>
            0 -1 45 -1258354350 1161805684 -2063630332 117423807
            763323458 -2071986372 167084707 -585796352</internalNodes>
          <leafValues>
            -4.9539330601692200e-01 6.3109481334686279e-01</leafValues></_>
        <_>
          <internalNodes>
            0 -1 246 -981151666 1638401 112 64 1082720264 402653184
            33589898 302231579</internalNodes>
          <leafValues>
            -6.2739956378936768e-01 5.1501220464706421e-01</leafValues></_>
        <_>
          <internalNodes>
            0 -1 72 -768376775 -1624357129 -151329112 1202974321
            215007364 1312589679 1449065163 -404995126</internalNodes>
          <leafValues>
            -3.7873339653015137e-01 8.4097850322723389e-01</leafValues></_>
        <_>
          <internalNodes>
            0 -1 13 1379856267 -1608990810 -12521659 151525121
            1686494847 551092086 -10616866 -318537775</internalNodes>
          <leafValues>
            -4.1868147253990173e-01 6.9738036394119263e-01</leafValues></_>
        <_>
          <internalNodes>
            0 -1 40 1351647383 1342308352 268435719 1367654424
            -2147450750 -2147483640 -2147442685 -791957485</internalNodes>
          <leafValues>
            -4.2840290069580078e-01 7.0496296882629395e-01</leafValues></_>
        <_>
          <internalNodes>
            0 -1 199 2129010134 1543470958 1878970039 134213630
            2088644737 1417478006 -1921039347 687726383</internalNodes>
          <leafValues>
            -4.9507212638854980e-01 5.9471672773361206e-01</leafValues></_></weakClassifiers></_></stages>
  <features>
    <_>
      <rect>
        0 0 4 2</rect></_>
    <_>
      <rect>
        0 2 3 4</rect></_>
    <_>
      <rect>
        0 3 4 4</rect></_>
    <_>
      <rect>
        0 3 4 5</rect></_>
    <_>
      <rect>
        0 6 3 3</rect></_>
    <_>
      <rect>
        0 8 2 2</rect></_>
    <_>
      <rect>
        0 9 6 6</rect></_>
    <_>
      <rect>
        0 12 4 6</rect></_>
    <_>
      <rect>
        0 13 9 4</rect></_>
    <_>
      <rect>
        0 16 4 2</rect></_>
    <_>
      <rect>
        0 16 5 3</rect></_>
    <_>
      <rect>
        0 22 2 2</rect></_>
    <_>
      <rect>
        1 0 5 2</rect></_>
    <_>
      <rect>
        1 0 6 9</rect></_>
    <_>
      <rect>
        1 1 9 4</rect></_>
    <_>
      <rect>
        1 2 4 4</rect></_>
    <_>
      <rect>
        1 5 2 3</rect></_>
    <_>
      <rect>
        1 6 4 3</rect></_>
    <_>
      <rect>
        1 9 5 5</rect></_>
    <_>
      <rect>
        1 16 3 4</rect></_>
    <_>
      <rect>
        1 17 5 1</rect></_>
    <_>
      <rect>
        1 18 5 4</rect></_>
    <_>
      <rect>
        2 1 6 8</rect></_>
    <_>
      <rect>
        2 2 7 7</rect></_>
    <_>
      <rect>
        2 3 4 1</rect></_>
    <_>
      <rect>
        2 10 6 1</rect></_>
    <_>
      <rect>
        2 16 2 1</rect></_>
    <_>
      <rect>
        2 22 4 2</rect></_>
    <_>
      <rect>
        3 1 4 2</rect></_>
    <_>
      <rect>
        3 13 3 2</rect></_>
    <_>
      <rect>
        3 20 2 3</rect></_>
    <_>
      <rect>
        3 21 3 2</rect></_>
    <_>
      <rect>
        4 8 2 1</rect></_>
    <_>
      <rect>
        4 10 3 5</rect></_>
    <_>
      <rect>
        4 10 6 1</rect></_>
    <_>
      <rect>
        4 17 4 1</rect></_>
    <_>
      <rect>
        4 20 1 1</rect></_>
    <_>
      <rect>
        4 20 7 3</rect></_>
    <_>
      <rect>
        5 0 4 4</rect></_>
    <_>
      <rect>
        5 1 3 8</rect></_>
    <_>
      <rect>
        5 7 2 2</rect></_>
    <_>
      <rect>
        5 9 2 1</rect></_>
    <_>
      <rect>
        5 10 6 2</rect></_>
    <_>
      <rect>
        5 18 3 2</rect></_>
    <_>
      <rect>
        6 0 2 2</rect></_>
    <_>
      <rect>
        6 1 8 5</rect></_>
    <_>
      <rect>
        6 3 3 8</rect></_>
    <_>
      <rect>
        6 6 5 8</rect></_>
    <_>
      <rect>
        6 9 2 1</rect></_>
    <_>
      <rect>
        6 11 6 6</rect></_>
    <_>
      <rect>
        6 12 5 1</rect></_>
    <_>
      <rect>
        6 15 1 1</rect></_>
    <_>
      <rect>
        6 16 1 1</rect></_>
    <_>
      <rect>
        6 17 1 1</rect></_>
    <_>
      <rect>
        6 18 2 1</rect></_>
    <_>
      <rect>
        6 19 1 1</rect></_>
    <_>
      <rect>
        6 20 5 2</rect></_>
    <_>
      <rect>
        6 21 4 3</rect></_>
    <_>
      <rect>
        6 22 3 2</rect></_>
    <_>
      <rect>
        6 23 3 2</rect></_>
    <_>
      <rect>
        7 4 5 5</rect></_>
    <_>
      <rect>
        7 5 5 4</rect></_>
    <_>
      <rect>
        7 8 1 1</rect></_>
    <_>
      <rect>
        7 9 4 6</rect></_>
    <_>
      <rect>
        7 10 1 1</rect></_>
    <_>
      <rect>
        7 10 5 4</rect></_>
    <_>
      <rect>
        7 11 3 5</rect></_>
    <_>
      <rect>
        7 11 5 6</rect></_>
    <_>
      <rect>
        7 12 5 6</rect></_>
    <_>
      <rect>
        7 17 1 1</rect></_>
    <_>
      <rect>
        7 17 3 1</rect></_>
    <_>
      <rect>
        7 18 1 1</rect></_>
    <_>
      <rect>
        7 22 3 2</rect></_>
    <_>
      <rect>
        7 24 3 2</rect></_>
    <_>
      <rect>
        8 0 2 1</rect></_>
    <_>
      <rect>
        8 6 3 4</rect></_>
    <_>
      <rect>
        8 7 1 1</rect></_>
    <_>
      <rect>
        8 7 4 5</rect></_>
    <_>
      <rect>
        8 8 1 1</rect></_>
    <_>
      <rect>
        8 10 1 1</rect></_>
    <_>
      <rect>
        8 11 3 2</rect></_>
    <_>
      <rect>
        8 18 3 1</rect></_>
    <_>
      <rect>
        8 18 3 4</rect></_>
    <_>
      <rect>
        8 19 2 3</rect></_>
    <_>
      <rect>
        8 20 4 2</rect></_>
    <_>
      <rect>
        8 27 2 1</rect></_>
    <_>
      <rect>
        9 1 4 8</rect></_>
    <_>
      <rect>
        9 2 4 6</rect></_>
    <_>
      <rect>
        9 5 4 4</rect></_>
    <_>
      <rect>
        9 7 4 2</rect></_>
    <_>
      <rect>
        9 8 4 3</rect></_>
    <_>
      <rect>
        9 9 2 1</rect></_>
    <_>
      <rect>
        9 10 4 1</rect></_>
    <_>
      <rect>
        9 10 5 2</rect></_>
    <_>
      <rect>
        9 10 5 4</rect></_>
    <_>
      <rect>
        9 10 6 1</rect></_>
    <_>
      <rect>
        9 11 2 2</rect></_>
    <_>
      <rect>
        9 12 2 1</rect></_>
    <_>
      <rect>
        9 12 2 3</rect></_>
    <_>
      <rect>
        9 14 1 1</rect></_>
    <_>
      <rect>
        9 15 1 1</rect></_>
    <_>
      <rect>
        9 18 5 4</rect></_>
    <_>
      <rect>
        9 21 3 2</rect></_>
    <_>
      <rect>
        9 27 1 1</rect></_>
    <_>
      <rect>
        10 5 3 3</rect></_>
    <_>
      <rect>
        10 7 3 2</rect></_>
    <_>
      <rect>
        10 8 1 1</rect></_>
    <_>
      <rect>
        10 9 1 1</rect></_>
    <_>
      <rect>
        10 10 1 1</rect></_>
    <_>
      <rect>
        10 11 2 5</rect></_>
    <_>
      <rect>
        10 11 3 1</rect></_>
    <_>
      <rect>
        10 13 1 1</rect></_>
    <_>
      <rect>
        10 13 2 1</rect></_>
    <_>
      <rect>
        10 14 1 1</rect></_>
    <_>
      <rect>
        10 15 1 1</rect></_>
    <_>
      <rect>
        10 18 1 2</rect></_>
    <_>
      <rect>
        10 19 2 1</rect></_>
    <_>
      <rect>
        11 0 6 4</rect></_>
    <_>
      <rect>
        11 5 2 3</rect></_>
    <_>
      <rect>
        11 5 3 3</rect></_>
    <_>
      <rect>
        11 9 4 7</rect></_>
    <_>
      <rect>
        11 10 3 1</rect></_>
    <_>
      <rect>
        11 11 3 1</rect></_>
    <_>
      <rect>
        11 12 1 1</rect></_>
    <_>
      <rect>
        11 12 2 1</rect></_>
    <_>
      <rect>
        11 17 2 2</rect></_>
    <_>
      <rect>
        11 18 2 1</rect></_>
    <_>
      <rect>
        11 19 1 1</rect></_>
    <_>
      <rect>
        11 20 1 1</rect></_>
    <_>
      <rect>
        11 21 2 2</rect></_>
    <_>
      <rect>
        12 0 1 1</rect></_>
    <_>
      <rect>
        12 0 5 5</rect></_>
    <_>
      <rect>
        12 1 3 1</rect></_>
    <_>
      <rect>
        12 8 1 1</rect></_>
    <_>
      <rect>
        12 10 1 1</rect></_>
    <_>
      <rect>
        12 11 4 5</rect></_>
    <_>
      <rect>
        12 12 1 1</rect></_>
    <_>
      <rect>
        12 14 1 1</rect></_>
    <_>
      <rect>
        12 15 1 1</rect></_>
    <_>
      <rect>
        12 15 6 3</rect></_>
    <_>
      <rect>
        12 18 3 1</rect></_>
    <_>
      <rect>
        12 19 4 1</rect></_>
    <_>
      <rect>
        13 0 3 2</rect></_>
    <_>
      <rect>
        13 0 4 4</rect></_>
    <_>
      <rect>
        13 1 2 1</rect></_>
    <_>
      <rect>
        13 5 3 5</rect></_>
    <_>
      <rect>
        13 9 1 1</rect></_>
    <_>
      <rect>
        13 10 3 2</rect></_>
    <_>
      <rect>
        13 13 1 1</rect></_>
    <_>
      <rect>
        13 13 2 1</rect></_>
    <_>
      <rect>
        13 14 1 1</rect></_>
    <_>
      <rect>
        13 19 1 1</rect></_>
    <_>
      <rect>
        13 19 2 2</rect></_>
    <_>
      <rect>
        13 19 2 3</rect></_>
    <_>
      <rect>
        13 21 1 1</rect></_>
    <_>
      <rect>
        13 22 1 1</rect></_>
    <_>
      <rect>
        13 23 4 2</rect></_>
    <_>
      <rect>
        13 26 1 1</rect></_>
    <_>
      <rect>
        14 2 4 4</rect></_>
    <_>
      <rect>
        14 3 3 8</rect></_>
    <_>
      <rect>
        14 10 1 1</rect></_>
    <_>
      <rect>
        14 10 3 5</rect></_>
    <_>
      <rect>
        14 12 1 1</rect></_>
    <_>
      <rect>
        14 12 2 1</rect></_>
    <_>
      <rect>
        14 12 3 1</rect></_>
    <_>
      <rect>
        14 13 1 1</rect></_>
    <_>
      <rect>
        14 14 1 1</rect></_>
    <_>
      <rect>
        14 16 3 1</rect></_>
    <_>
      <rect>
        14 17 3 1</rect></_>
    <_>
      <rect>
        14 17 5 1</rect></_>
    <_>
      <rect>
        14 18 2 1</rect></_>
    <_>
      <rect>
        14 18 2 2</rect></_>
    <_>
      <rect>
        14 18 3 1</rect></_>
    <_>
      <rect>
        14 19 1 1</rect></_>
    <_>
      <rect>
        14 20 1 1</rect></_>
    <_>
      <rect>
        14 21 1 1</rect></_>
    <_>
      <rect>
        14 21 4 1</rect></_>
    <_>
      <rect>
        14 22 1 1</rect></_>
    <_>
      <rect>
        14 22 3 2</rect></_>
    <_>
      <rect>
        14 24 3 2</rect></_>
    <_>
      <rect>
        15 1 3 7</rect></_>
    <_>
      <rect>
        15 4 3 6</rect></_>
    <_>
      <rect>
        15 9 2 1</rect></_>
    <_>
      <rect>
        15 10 2 1</rect></_>
    <_>
      <rect>
        15 10 4 5</rect></_>
    <_>
      <rect>
        15 10 5 4</rect></_>
    <_>
      <rect>
        15 14 1 1</rect></_>
    <_>
      <rect>
        15 17 5 4</rect></_>
    <_>
      <rect>
        15 18 2 1</rect></_>
    <_>
      <rect>
        15 19 1 2</rect></_>
    <_>
      <rect>
        15 19 4 1</rect></_>
    <_>
      <rect>
        16 0 3 7</rect></_>
    <_>
      <rect>
        16 8 1 1</rect></_>
    <_>
      <rect>
        16 8 2 1</rect></_>
    <_>
      <rect>
        16 9 2 1</rect></_>
    <_>
      <rect>
        16 12 2 2</rect></_>
    <_>
      <rect>
        16 22 2 2</rect></_>
    <_>
      <rect>
        16 22 3 2</rect></_>
    <_>
      <rect>
        16 27 1 1</rect></_>
    <_>
      <rect>
        17 5 4 2</rect></_>
    <_>
      <rect>
        17 13 1 1</rect></_>
    <_>
      <rect>
        17 15 1 1</rect></_>
    <_>
      <rect>
        17 17 4 4</rect></_>
    <_>
      <rect>
        17 19 4 3</rect></_>
    <_>
      <rect>
        17 21 2 2</rect></_>
    <_>
      <rect>
        17 22 2 2</rect></_>
    <_>
      <rect>
        17 26 1 1</rect></_>
    <_>
      <rect>
        18 0 3 2</rect></_>
    <_>
      <rect>
        18 1 1 1</rect></_>
    <_>
      <rect>
        18 1 4 9</rect></_>
    <_>
      <rect>
        18 7 1 1</rect></_>
    <_>
      <rect>
        18 8 1 1</rect></_>
    <_>
      <rect>
        18 9 1 1</rect></_>
    <_>
      <rect>
        18 14 1 1</rect></_>
    <_>
      <rect>
        18 19 3 2</rect></_>
    <_>
      <rect>
        18 20 2 3</rect></_>
    <_>
      <rect>
        19 0 2 2</rect></_>
    <_>
      <rect>
        19 8 1 1</rect></_>
    <_>
      <rect>
        19 9 1 1</rect></_>
    <_>
      <rect>
        19 16 1 1</rect></_>
    <_>
      <rect>
        19 24 1 2</rect></_>
    <_>
      <rect>
        20 0 2 2</rect></_>
    <_>
      <rect>
        20 3 3 6</rect></_>
    <_>
      <rect>
        20 8 1 1</rect></_>
    <_>
      <rect>
        20 9 1 1</rect></_>
    <_>
      <rect>
        20 10 1 1</rect></_>
    <_>
      <rect>
        20 15 3 3</rect></_>
    <_>
      <rect>
        20 17 1 1</rect></_>
    <_>
      <rect>
        20 19 1 1</rect></_>
    <_>
      <rect>
        20 21 2 3</rect></_>
    <_>
      <rect>
        20 27 1 1</rect></_>
    <_>
      <rect>
        21 0 3 2</rect></_>
    <_>
      <rect>
        21 0 3 3</rect></_>
    <_>
      <rect>
        21 1 3 3</rect></_>
    <_>
      <rect>
        21 1 3 4</rect></_>
    <_>
      <rect>
        21 1 3 5</rect></_>
    <_>
      <rect>
        21 9 1 1</rect></_>
    <_>
      <rect>
        21 13 2 1</rect></_>
    <_>
      <rect>
        21 13 3 5</rect></_>
    <_>
      <rect>
        21 15 2 2</rect></_>
    <_>
      <rect>
        21 16 1 1</rect></_>
    <_>
      <rect>
        21 17 1 1</rect></_>
    <_>
      <rect>
        21 18 2 3</rect></_>
    <_>
      <rect>
        22 6 2 3</rect></_>
    <_>
      <rect>
        22 15 1 2</rect></_>
    <_>
      <rect>
        23 6 2 2</rect></_>
    <_>
      <rect>
        23 9 1 1</rect></_>
    <_>
      <rect>
        23 9 2 2</rect></_>
    <_>
      <rect>
        24 8 2 3</rect></_></features></cascade>
</opencv_storage>
